A	-0.194922	0.312835	0.266794	0.142748	-0.052851	-0.051945	0.020496	-0.004561	-0.005532	0.012950	0.015342	-0.002886
C	-0.047288	-0.030999	-0.03099901820	0.107155	0.041002	0.015734	-0.023759	0.048621	0.035989	0.063953	0.049388	0.005909
D	-0.082913	0.027096	-0.133352	0.067940	0.022027	-0.054482	-0.035727	-0.085463	0.091389	-0.059567	-0.011047	-0.021230
E	-0.102403	0.010615	-0.084112	0.038560	0.025220	-0.104403	0.039988	-0.047974	0.024039	0.015643	-0.024043	0.036624
F	-0.062273	-0.342658	0.068247	0.159944	0.048147	-0.058405	-0.033099	0.030223	-0.045460	0.015818	-0.017695	-0.012344
G	-0.022755	0.059786	0.027914	0.069945	0.003811	-0.002008	0.008090	0.118954	-0.043537	-0.059803	-0.046188	-0.003031
H	0.280908	-0.051991	-0.069665	0.029728	-0.018926	-0.028721	-0.096245	-0.042472	-0.013820	0.042419	-0.016892	0.001710
I	-0.272506	-0.206544	0.180605	-0.132595	0.042117	0.038705	-0.023824	0.032499	0.069625	-0.016267	-0.005291	0.016814
K	0.305281	0.072256	0.200510	-0.088788	0.102217	0.066635	-0.045606	-0.034739	-0.007891	-0.031975	-0.007459	0.012669
L	-0.091702	-0.142039	0.063736	-0.143235	0.054945	-0.057377	0.013416	-0.050515	-0.078532	0.026903	-0.010145	-0.005731
M	0.026172	-0.166596	0.049132	-0.131870	-0.027965	-0.081489	0.030358	0.027259	0.045284	-0.016786	0.033195	-0.019669
N	0.042762	-0.034510	-0.180293	-0.041302	-0.041620	-0.024695	-0.072668	0.011068	-0.073864	-0.047372	0.052979	0.007860
P	-0.226287	0.359421	-0.202904	0.014101	0.171136	0.060151	-0.007095	0.008050	-0.015889	-0.000960	0.008175	-0.003342
Q	0.030796	0.115012	-0.173650	-0.154323	-0.018434	-0.051000	0.100447	0.037995	-0.012969	0.023616	-0.009045	-0.001994
R	0.510054	0.168433	0.089175	0.013265	0.057672	-0.007394	0.048017	0.021783	0.033729	0.017153	0.002731	-0.010335
S	0.053982	0.162614	0.000958	-0.027313	-0.171057	-0.007825	-0.045805	0.042644	0.022005	-0.012539	0.002432	0.013884
T	-0.058668	0.132114	-0.011301	-0.020030	-0.145208	0.065189	-0.008182	-0.050154	-0.011273	0.023497	-0.029602	-0.008297
V	-0.216235	0.029306	0.118279	-0.057013	-0.032871	0.088969	0.009372	-0.048435	-0.033035	0.011389	0.011020	-0.012901
W	0.005858	-0.232560	-0.182500	0.007052	-0.025846	0.115006	-0.000742	0.041260	0.042363	0.034476	-0.019775	-0.004634
Y	0.122138	-0.241591	-0.025753	0.146033	-0.033518	0.079357	0.122571	-0.056044	-0.022623	-0.042549	0.021919	0.010924