A	-0.074995	0.368597	0.273213	-0.199814	-0.139554	0.088361	-0.058410	0.069952	0.051539	0.137111	-0.032875	0.005812
C	-0.080834	-0.041293	-0.044011	-0.132429	-0.029456	0.039403	-0.003824	-0.103118	-0.063974	0.138337	-0.018827	0.060112
D	-0.085934	0.062127	-0.183062	-0.062344	0.045022	0.174213	0.213188	0.017066	-0.029859	-0.053531	-0.038391	-0.015817
E	-0.118041	0.050110	-0.134943	-0.017031	0.037360	0.205529	0.092474	0.088829	-0.048041	-0.031558	0.028361	0.023159
F	-0.159252	-0.325106	0.084313	-0.210304	0.011103	0.076855	-0.123639	-0.065802	0.029340	-0.109524	0.171663	-0.017377
G	-0.011867	0.084195	-0.008819	-0.061903	-0.095722	0.030046	-0.166466	-0.087295	-0.109040	-0.122937	-0.102745	0.038645
H	0.281193	-0.141905	-0.092624	-0.009536	-0.043698	0.030072	0.053740	-0.122262	0.196971	0.059739	0.011087	-0.124745
I	-0.299403	-0.117043	0.279221	0.131393	0.098390	-0.052534	0.082572	-0.104902	-0.118042	-0.011068	-0.073101	-0.134303
K	0.384747	-0.027654	0.231021	0.050082	0.086203	-0.009917	0.063220	-0.050264	0.021546	-0.087462	-0.083194	0.150727
L	-0.161911	-0.136116	0.116396	0.197798	0.082362	0.061772	-0.057580	0.068446	0.117656	-0.015029	0.048884	0.063340
M	-0.053525	-0.194736	0.051855	0.192482	0.008106	0.069005	-0.086436	0.058089	0.017186	0.108868	-0.080778	-0.054136
N	0.026545	-0.048172	-0.239195	0.094027	-0.038571	0.009832	-0.043667	-0.087523	0.092898	0.009368	-0.077441	0.088431
P	-0.078814	0.390510	-0.132599	-0.118755	0.360201	-0.129680	-0.063451	-0.043596	0.069086	-0.015054	-0.010044	-0.047984
Q	0.051842	0.117050	-0.208007	0.212784	0.041212	-0.000203	-0.133402	0.127613	-0.079869	0.012971	0.052795	-0.015631
R	0.552775	-0.003894	0.145720	-0.027117	0.106611	0.020052	0.010797	0.054957	-0.123701	0.043407	0.102322	-0.040050
S	0.103196	0.183123	-0.056384	0.093528	-0.236469	-0.041501	-0.018333	-0.068530	-0.042665	-0.059304	0.012837	-0.083010
T	-0.024845	0.198520	-0.041782	0.071776	-0.195857	-0.116646	0.082188	0.016600	0.025450	-0.058912	0.092037	-0.015702
V	-0.214738	0.117782	0.185212	0.067646	-0.036516	-0.127689	0.099122	0.039229	0.067349	-0.008233	0.071695	0.082512
W	-0.074639	-0.246864	-0.179807	-0.062228	-0.006986	-0.176453	0.050256	-0.037464	-0.111583	0.127812	0.053398	0.089082
Y	0.038501	-0.289230	-0.045719	-0.210054	-0.053739	-0.150519	0.007653	0.229973	0.037753	-0.065002	-0.127684	-0.053066